digraph Tree {
node [shape=box, style="filled, rounded", color="black", fontname=helvetica] ;
edge [fontname=helvetica] ;
0 [label="Polyuria_Yes <= 0.5\ngini = 0.472\nsamples = 416\nvalue = [159, 257]\nclass = Diabetes Positive", fillcolor="#b3daf5"] ;
1 [label="Polydipsia_Yes <= 0.5\ngini = 0.416\nsamples = 207\nvalue = [146, 61]\nclass = Diabetes Negative", fillcolor="#f0b68c"] ;
0 -> 1 [labeldistance=2.5, labelangle=45, headlabel="True"] ;
2 [label="Gender_Male <= 0.5\ngini = 0.306\nsamples = 170\nvalue = [138, 32]\nclass = Diabetes Negative", fillcolor="#eb9e67"] ;
1 -> 2 ;
3 [label="Alopecia_Yes <= 0.5\ngini = 0.478\nsamples = 38\nvalue = [15, 23]\nclass = Diabetes Positive", fillcolor="#baddf6"] ;
2 -> 3 ;
4 [label="Age <= 34.5\ngini = 0.302\nsamples = 27\nvalue = [5, 22]\nclass = Diabetes Positive", fillcolor="#66b3eb"] ;
3 -> 4 ;
5 [label="gini = 0.408\nsamples = 7\nvalue = [5, 2]\nclass = Diabetes Negative", fillcolor="#efb388"] ;
4 -> 5 ;
6 [label="gini = 0.0\nsamples = 20\nvalue = [0, 20]\nclass = Diabetes Positive", fillcolor="#399de5"] ;
4 -> 6 ;
7 [label="Polyphagia_Yes <= 0.5\ngini = 0.165\nsamples = 11\nvalue = [10, 1]\nclass = Diabetes Negative", fillcolor="#e88e4d"] ;
3 -> 7 ;
8 [label="gini = 0.0\nsamples = 10\nvalue = [10, 0]\nclass = Diabetes Negative", fillcolor="#e58139"] ;
7 -> 8 ;
9 [label="gini = 0.0\nsamples = 1\nvalue = [0, 1]\nclass = Diabetes Positive", fillcolor="#399de5"] ;
7 -> 9 ;
10 [label="Irritability_Yes <= 0.5\ngini = 0.127\nsamples = 132\nvalue = [123, 9]\nclass = Diabetes Negative", fillcolor="#e78a47"] ;
2 -> 10 ;
11 [label="partial paresis_Yes <= 0.5\ngini = 0.064\nsamples = 120\nvalue = [116, 4]\nclass = Diabetes Negative", fillcolor="#e68540"] ;
10 -> 11 ;
12 [label="gini = 0.036\nsamples = 109\nvalue = [107, 2]\nclass = Diabetes Negative", fillcolor="#e5833d"] ;
11 -> 12 ;
13 [label="gini = 0.298\nsamples = 11\nvalue = [9, 2]\nclass = Diabetes Negative", fillcolor="#eb9d65"] ;
11 -> 13 ;
14 [label="Genital thrush_Yes <= 0.5\ngini = 0.486\nsamples = 12\nvalue = [7, 5]\nclass = Diabetes Negative", fillcolor="#f8dbc6"] ;
10 -> 14 ;
15 [label="gini = 0.219\nsamples = 8\nvalue = [7, 1]\nclass = Diabetes Negative", fillcolor="#e99355"] ;
14 -> 15 ;
16 [label="gini = 0.0\nsamples = 4\nvalue = [0, 4]\nclass = Diabetes Positive", fillcolor="#399de5"] ;
14 -> 16 ;
17 [label="Irritability_Yes <= 0.5\ngini = 0.339\nsamples = 37\nvalue = [8, 29]\nclass = Diabetes Positive", fillcolor="#70b8ec"] ;
1 -> 17 ;
18 [label="muscle stiffness_Yes <= 0.5\ngini = 0.472\nsamples = 21\nvalue = [8, 13]\nclass = Diabetes Positive", fillcolor="#b3d9f5"] ;
17 -> 18 ;
19 [label="Age <= 48.0\ngini = 0.165\nsamples = 11\nvalue = [1, 10]\nclass = Diabetes Positive", fillcolor="#4da7e8"] ;
18 -> 19 ;
20 [label="gini = 0.0\nsamples = 7\nvalue = [0, 7]\nclass = Diabetes Positive", fillcolor="#399de5"] ;
19 -> 20 ;
21 [label="gini = 0.375\nsamples = 4\nvalue = [1, 3]\nclass = Diabetes Positive", fillcolor="#7bbeee"] ;
19 -> 21 ;
22 [label="Alopecia_Yes <= 0.5\ngini = 0.42\nsamples = 10\nvalue = [7, 3]\nclass = Diabetes Negative", fillcolor="#f0b78e"] ;
18 -> 22 ;
23 [label="gini = 0.0\nsamples = 6\nvalue = [6, 0]\nclass = Diabetes Negative", fillcolor="#e58139"] ;
22 -> 23 ;
24 [label="gini = 0.375\nsamples = 4\nvalue = [1, 3]\nclass = Diabetes Positive", fillcolor="#7bbeee"] ;
22 -> 24 ;
25 [label="gini = 0.0\nsamples = 16\nvalue = [0, 16]\nclass = Diabetes Positive", fillcolor="#399de5"] ;
17 -> 25 ;
26 [label="Age <= 69.5\ngini = 0.117\nsamples = 209\nvalue = [13, 196]\nclass = Diabetes Positive", fillcolor="#46a4e7"] ;
0 -> 26 [labeldistance=2.5, labelangle=-45, headlabel="False"] ;
27 [label="Obesity_Yes <= 0.5\ngini = 0.069\nsamples = 197\nvalue = [7, 190]\nclass = Diabetes Positive", fillcolor="#40a1e6"] ;
26 -> 27 ;
28 [label="gini = 0.0\nsamples = 154\nvalue = [0, 154]\nclass = Diabetes Positive", fillcolor="#399de5"] ;
27 -> 28 ;
29 [label="Polydipsia_Yes <= 0.5\ngini = 0.273\nsamples = 43\nvalue = [7, 36]\nclass = Diabetes Positive", fillcolor="#5fb0ea"] ;
27 -> 29 ;
30 [label="Alopecia_Yes <= 0.5\ngini = 0.497\nsamples = 13\nvalue = [7, 6]\nclass = Diabetes Negative", fillcolor="#fbede3"] ;
29 -> 30 ;
31 [label="gini = 0.0\nsamples = 6\nvalue = [0, 6]\nclass = Diabetes Positive", fillcolor="#399de5"] ;
30 -> 31 ;
32 [label="gini = 0.0\nsamples = 7\nvalue = [7, 0]\nclass = Diabetes Negative", fillcolor="#e58139"] ;
30 -> 32 ;
33 [label="gini = 0.0\nsamples = 30\nvalue = [0, 30]\nclass = Diabetes Positive", fillcolor="#399de5"] ;
29 -> 33 ;
34 [label="weakness_Yes <= 0.5\ngini = 0.5\nsamples = 12\nvalue = [6, 6]\nclass = Diabetes Negative", fillcolor="#ffffff"] ;
26 -> 34 ;
35 [label="gini = 0.0\nsamples = 6\nvalue = [6, 0]\nclass = Diabetes Negative", fillcolor="#e58139"] ;
34 -> 35 ;
36 [label="gini = 0.0\nsamples = 6\nvalue = [0, 6]\nclass = Diabetes Positive", fillcolor="#399de5"] ;
34 -> 36 ;
}